digraph Tree {
node [shape=box, style="filled, rounded", color="black", fontname="helvetica"] ;
edge [fontname="helvetica"] ;
0 [label="Overall Percentage <= 86.5\ngini = 0.961\nsamples = 31\nvalue = [1, 1, 1, 1, 2, 1, 1, 1, 1, 1, 1, 1, 1, 2\n1, 1, 1, 1, 1, 1, 1, 1, 1, 2, 1, 1, 1, 1]\nclass = Biomedical Engineering", fillcolor="#ffffff"] ;
1 [label="Entarance Result <= 410.0\ngini = 0.961\nsamples = 29\nvalue = [1, 1, 1, 1, 2, 1, 1, 1, 1, 1, 1, 1, 1, 0\n1, 1, 1, 1, 1, 1, 1, 1, 1, 2, 1, 1, 1, 1]\nclass = Biomedical Engineering", fillcolor="#ffffff"] ;
0 -> 1 [labeldistance=2.5, labelangle=45, headlabel="True"] ;
2 [label="Entarance Result <= 384.5\ngini = 0.844\nsamples = 8\nvalue = [0, 1, 0, 1, 0, 1, 0, 0, 0, 0, 0, 0, 0, 0\n0, 0, 0, 0, 0, 1, 0, 0, 0, 2, 1, 0, 1, 0]\nclass = applied biology", fillcolor="#fbe3f3"] ;
1 -> 2 ;
3 [label="Overall Percentage <= 53.5\ngini = 0.8\nsamples = 5\nvalue = [0, 1, 0, 1, 0, 1, 0, 0, 0, 0, 0, 0, 0, 0\n0, 0, 0, 0, 0, 0, 0, 0, 0, 0, 1, 0, 1, 0]\nclass =  Social Anthropology", fillcolor="#ffffff"] ;
2 -> 3 ;
4 [label="gini = 0.0\nsamples = 1\nvalue = [0, 0, 0, 0, 0, 1, 0, 0, 0, 0, 0, 0, 0, 0\n0, 0, 0, 0, 0, 0, 0, 0, 0, 0, 0, 0, 0, 0]\nclass = Civics and Ethics", fillcolor="#92e539"] ;
3 -> 4 ;
5 [label="Gender <= 0.5\ngini = 0.75\nsamples = 4\nvalue = [0, 1, 0, 1, 0, 0, 0, 0, 0, 0, 0, 0, 0, 0\n0, 0, 0, 0, 0, 0, 0, 0, 0, 0, 1, 0, 1, 0]\nclass =  Social Anthropology", fillcolor="#ffffff"] ;
3 -> 5 ;
6 [label="gini = 0.0\nsamples = 1\nvalue = [0, 1, 0, 0, 0, 0, 0, 0, 0, 0, 0, 0, 0, 0\n0, 0, 0, 0, 0, 0, 0, 0, 0, 0, 0, 0, 0, 0]\nclass =  Social Anthropology", fillcolor="#e5a339"] ;
5 -> 6 ;
7 [label="Entarance Result <= 362.5\ngini = 0.667\nsamples = 3\nvalue = [0, 0, 0, 1, 0, 0, 0, 0, 0, 0, 0, 0, 0, 0\n0, 0, 0, 0, 0, 0, 0, 0, 0, 0, 1, 0, 1, 0]\nclass = AgroEconomic", fillcolor="#ffffff"] ;
5 -> 7 ;
8 [label="gini = 0.0\nsamples = 1\nvalue = [0, 0, 0, 0, 0, 0, 0, 0, 0, 0, 0, 0, 0, 0\n0, 0, 0, 0, 0, 0, 0, 0, 0, 0, 1, 0, 0, 0]\nclass = applied chemistry", fillcolor="#e53986"] ;
7 -> 8 ;
9 [label="Entarance Result <= 367.5\ngini = 0.5\nsamples = 2\nvalue = [0, 0, 0, 1, 0, 0, 0, 0, 0, 0, 0, 0, 0, 0\n0, 0, 0, 0, 0, 0, 0, 0, 0, 0, 0, 0, 1, 0]\nclass = AgroEconomic", fillcolor="#ffffff"] ;
7 -> 9 ;
10 [label="gini = 0.0\nsamples = 1\nvalue = [0, 0, 0, 0, 0, 0, 0, 0, 0, 0, 0, 0, 0, 0\n0, 0, 0, 0, 0, 0, 0, 0, 0, 0, 0, 0, 1, 0]\nclass = plantscience", fillcolor="#e5393c"] ;
9 -> 10 ;
11 [label="gini = 0.0\nsamples = 1\nvalue = [0, 0, 0, 1, 0, 0, 0, 0, 0, 0, 0, 0, 0, 0\n0, 0, 0, 0, 0, 0, 0, 0, 0, 0, 0, 0, 0, 0]\nclass = AgroEconomic", fillcolor="#dce539"] ;
9 -> 11 ;
12 [label="Overall Percentage <= 61.0\ngini = 0.444\nsamples = 3\nvalue = [0, 0, 0, 0, 0, 0, 0, 0, 0, 0, 0, 0, 0, 0\n0, 0, 0, 0, 0, 1, 0, 0, 0, 2, 0, 0, 0, 0]\nclass = applied biology", fillcolor="#f29cd6"] ;
2 -> 12 ;
13 [label="gini = 0.0\nsamples = 1\nvalue = [0, 0, 0, 0, 0, 0, 0, 0, 0, 0, 0, 0, 0, 0\n0, 0, 0, 0, 0, 1, 0, 0, 0, 0, 0, 0, 0, 0]\nclass = Statics", fillcolor="#8c39e5"] ;
12 -> 13 ;
14 [label="gini = 0.0\nsamples = 2\nvalue = [0, 0, 0, 0, 0, 0, 0, 0, 0, 0, 0, 0, 0, 0\n0, 0, 0, 0, 0, 0, 0, 0, 0, 2, 0, 0, 0, 0]\nclass = applied biology", fillcolor="#e539ac"] ;
12 -> 14 ;
15 [label="Entarance Result <= 510.0\ngini = 0.948\nsamples = 21\nvalue = [1, 0, 1, 0, 2, 0, 1, 1, 1, 1, 1, 1, 1, 0\n1, 1, 1, 1, 1, 0, 1, 1, 1, 0, 0, 1, 0, 1]\nclass = Biomedical Engineering", fillcolor="#fbfef5"] ;
1 -> 15 ;
16 [label="CGPA <= 3.1\ngini = 0.923\nsamples = 13\nvalue = [1, 0, 0, 0, 0, 0, 0, 1, 1, 1, 1, 0, 1, 0\n1, 1, 0, 1, 1, 0, 0, 0, 1, 0, 0, 1, 0, 1]\nclass =  Biotechnology", fillcolor="#ffffff"] ;
15 -> 16 ;
17 [label="Overall Percentage <= 63.5\ngini = 0.5\nsamples = 2\nvalue = [0, 0, 0, 0, 0, 0, 0, 0, 1, 0, 1, 0, 0, 0\n0, 0, 0, 0, 0, 0, 0, 0, 0, 0, 0, 0, 0, 0]\nclass = Electrical Engineering", fillcolor="#ffffff"] ;
16 -> 17 ;
18 [label="gini = 0.0\nsamples = 1\nvalue = [0, 0, 0, 0, 0, 0, 0, 0, 0, 0, 1, 0, 0, 0\n0, 0, 0, 0, 0, 0, 0, 0, 0, 0, 0, 0, 0, 0]\nclass = Information Systems", fillcolor="#39e598"] ;
17 -> 18 ;
19 [label="gini = 0.0\nsamples = 1\nvalue = [0, 0, 0, 0, 0, 0, 0, 0, 1, 0, 0, 0, 0, 0\n0, 0, 0, 0, 0, 0, 0, 0, 0, 0, 0, 0, 0, 0]\nclass = Electrical Engineering", fillcolor="#39e54d"] ;
17 -> 19 ;
20 [label="Entarance Result <= 435.0\ngini = 0.909\nsamples = 11\nvalue = [1, 0, 0, 0, 0, 0, 0, 1, 0, 1, 0, 0, 1, 0\n1, 1, 0, 1, 1, 0, 0, 0, 1, 0, 0, 1, 0, 1]\nclass =  Biotechnology", fillcolor="#ffffff"] ;
16 -> 20 ;
21 [label="Gender <= 0.5\ngini = 0.5\nsamples = 2\nvalue = [0, 0, 0, 0, 0, 0, 0, 0, 0, 1, 0, 0, 0, 0\n0, 0, 0, 1, 0, 0, 0, 0, 0, 0, 0, 0, 0, 0]\nclass = Geology", fillcolor="#ffffff"] ;
20 -> 21 ;
22 [label="gini = 0.0\nsamples = 1\nvalue = [0, 0, 0, 0, 0, 0, 0, 0, 0, 1, 0, 0, 0, 0\n0, 0, 0, 0, 0, 0, 0, 0, 0, 0, 0, 0, 0, 0]\nclass = Geology", fillcolor="#39e572"] ;
21 -> 22 ;
23 [label="gini = 0.0\nsamples = 1\nvalue = [0, 0, 0, 0, 0, 0, 0, 0, 0, 0, 0, 0, 0, 0\n0, 0, 0, 1, 0, 0, 0, 0, 0, 0, 0, 0, 0, 0]\nclass = Psychology", fillcolor="#4139e5"] ;
21 -> 23 ;
24 [label="Gender <= 0.5\ngini = 0.889\nsamples = 9\nvalue = [1, 0, 0, 0, 0, 0, 0, 1, 0, 0, 0, 0, 1, 0\n1, 1, 0, 0, 1, 0, 0, 0, 1, 0, 0, 1, 0, 1]\nclass =  Biotechnology", fillcolor="#ffffff"] ;
20 -> 24 ;
25 [label="Overall Percentage <= 64.0\ngini = 0.75\nsamples = 4\nvalue = [0, 0, 0, 0, 0, 0, 0, 0, 0, 0, 0, 0, 0, 0\n1, 1, 0, 0, 1, 0, 0, 0, 0, 0, 0, 0, 0, 1]\nclass = Nursing", fillcolor="#ffffff"] ;
24 -> 25 ;
26 [label="gini = 0.0\nsamples = 1\nvalue = [0, 0, 0, 0, 0, 0, 0, 0, 0, 0, 0, 0, 0, 0\n1, 0, 0, 0, 0, 0, 0, 0, 0, 0, 0, 0, 0, 0]\nclass = Nursing", fillcolor="#399de5"] ;
25 -> 26 ;
27 [label="Entarance Result <= 490.0\ngini = 0.667\nsamples = 3\nvalue = [0, 0, 0, 0, 0, 0, 0, 0, 0, 0, 0, 0, 0, 0\n0, 1, 0, 0, 1, 0, 0, 0, 0, 0, 0, 0, 0, 1]\nclass = Optmetery", fillcolor="#ffffff"] ;
25 -> 27 ;
28 [label="gini = 0.0\nsamples = 1\nvalue = [0, 0, 0, 0, 0, 0, 0, 0, 0, 0, 0, 0, 0, 0\n0, 1, 0, 0, 0, 0, 0, 0, 0, 0, 0, 0, 0, 0]\nclass = Optmetery", fillcolor="#397be5"] ;
27 -> 28 ;
29 [label="CGPA <= 3.45\ngini = 0.5\nsamples = 2\nvalue = [0, 0, 0, 0, 0, 0, 0, 0, 0, 0, 0, 0, 0, 0\n0, 0, 0, 0, 1, 0, 0, 0, 0, 0, 0, 0, 0, 1]\nclass = Software Engireering", fillcolor="#ffffff"] ;
27 -> 29 ;
30 [label="gini = 0.0\nsamples = 1\nvalue = [0, 0, 0, 0, 0, 0, 0, 0, 0, 0, 0, 0, 0, 0\n0, 0, 0, 0, 1, 0, 0, 0, 0, 0, 0, 0, 0, 0]\nclass = Software Engireering", fillcolor="#6739e5"] ;
29 -> 30 ;
31 [label="gini = 0.0\nsamples = 1\nvalue = [0, 0, 0, 0, 0, 0, 0, 0, 0, 0, 0, 0, 0, 0\n0, 0, 0, 0, 0, 0, 0, 0, 0, 0, 0, 0, 0, 1]\nclass = widwifery", fillcolor="#e55b39"] ;
29 -> 31 ;
32 [label="Overall Percentage <= 61.0\ngini = 0.8\nsamples = 5\nvalue = [1, 0, 0, 0, 0, 0, 0, 1, 0, 0, 0, 0, 1, 0\n0, 0, 0, 0, 0, 0, 0, 0, 1, 0, 0, 1, 0, 0]\nclass =  Biotechnology", fillcolor="#ffffff"] ;
24 -> 32 ;
33 [label="gini = 0.0\nsamples = 1\nvalue = [0, 0, 0, 0, 0, 0, 0, 0, 0, 0, 0, 0, 0, 0\n0, 0, 0, 0, 0, 0, 0, 0, 1, 0, 0, 0, 0, 0]\nclass = animal science and extension", fillcolor="#e539d1"] ;
32 -> 33 ;
34 [label="Entarance Result <= 455.0\ngini = 0.75\nsamples = 4\nvalue = [1, 0, 0, 0, 0, 0, 0, 1, 0, 0, 0, 0, 1, 0\n0, 0, 0, 0, 0, 0, 0, 0, 0, 0, 0, 1, 0, 0]\nclass =  Biotechnology", fillcolor="#ffffff"] ;
32 -> 34 ;
35 [label="Overall Percentage <= 69.0\ngini = 0.5\nsamples = 2\nvalue = [1, 0, 0, 0, 0, 0, 0, 0, 0, 0, 0, 0, 0, 0\n0, 0, 0, 0, 0, 0, 0, 0, 0, 0, 0, 1, 0, 0]\nclass =  Biotechnology", fillcolor="#ffffff"] ;
34 -> 35 ;
36 [label="gini = 0.0\nsamples = 1\nvalue = [1, 0, 0, 0, 0, 0, 0, 0, 0, 0, 0, 0, 0, 0\n0, 0, 0, 0, 0, 0, 0, 0, 0, 0, 0, 0, 0, 0]\nclass =  Biotechnology", fillcolor="#e58139"] ;
35 -> 36 ;
37 [label="gini = 0.0\nsamples = 1\nvalue = [0, 0, 0, 0, 0, 0, 0, 0, 0, 0, 0, 0, 0, 0\n0, 0, 0, 0, 0, 0, 0, 0, 0, 0, 0, 1, 0, 0]\nclass = jouralism", fillcolor="#e53961"] ;
35 -> 37 ;
38 [label="Overall Percentage <= 64.5\ngini = 0.5\nsamples = 2\nvalue = [0, 0, 0, 0, 0, 0, 0, 1, 0, 0, 0, 0, 1, 0\n0, 0, 0, 0, 0, 0, 0, 0, 0, 0, 0, 0, 0, 0]\nclass = Economics", fillcolor="#ffffff"] ;
34 -> 38 ;
39 [label="gini = 0.0\nsamples = 1\nvalue = [0, 0, 0, 0, 0, 0, 0, 1, 0, 0, 0, 0, 0, 0\n0, 0, 0, 0, 0, 0, 0, 0, 0, 0, 0, 0, 0, 0]\nclass = Economics", fillcolor="#47e539"] ;
38 -> 39 ;
40 [label="gini = 0.0\nsamples = 1\nvalue = [0, 0, 0, 0, 0, 0, 0, 0, 0, 0, 0, 0, 1, 0\n0, 0, 0, 0, 0, 0, 0, 0, 0, 0, 0, 0, 0, 0]\nclass = Medical Labratory", fillcolor="#39e5e2"] ;
38 -> 40 ;
41 [label="Entarance Result <= 547.5\ngini = 0.844\nsamples = 8\nvalue = [0, 0, 1, 0, 2, 0, 1, 0, 0, 0, 0, 1, 0, 0\n0, 0, 1, 0, 0, 0, 1, 1, 0, 0, 0, 0, 0, 0]\nclass = Biomedical Engineering", fillcolor="#f5fbe3"] ;
15 -> 41 ;
42 [label="CGPA <= 3.45\ngini = 0.72\nsamples = 5\nvalue = [0, 0, 1, 0, 2, 0, 1, 0, 0, 0, 0, 0, 0, 0\n0, 0, 0, 0, 0, 0, 1, 0, 0, 0, 0, 0, 0, 0]\nclass = Biomedical Engineering", fillcolor="#edf8ce"] ;
41 -> 42 ;
43 [label="Entarance Result <= 525.0\ngini = 0.5\nsamples = 2\nvalue = [0, 0, 1, 0, 0, 0, 0, 0, 0, 0, 0, 0, 0, 0\n0, 0, 0, 0, 0, 0, 1, 0, 0, 0, 0, 0, 0, 0]\nclass = Accounting", fillcolor="#ffffff"] ;
42 -> 43 ;
44 [label="gini = 0.0\nsamples = 1\nvalue = [0, 0, 1, 0, 0, 0, 0, 0, 0, 0, 0, 0, 0, 0\n0, 0, 0, 0, 0, 0, 0, 0, 0, 0, 0, 0, 0, 0]\nclass = Accounting", fillcolor="#e5c839"] ;
43 -> 44 ;
45 [label="gini = 0.0\nsamples = 1\nvalue = [0, 0, 0, 0, 0, 0, 0, 0, 0, 0, 0, 0, 0, 0\n0, 0, 0, 0, 0, 0, 1, 0, 0, 0, 0, 0, 0, 0]\nclass = Vetarnry Medicine", fillcolor="#b139e5"] ;
43 -> 45 ;
46 [label="CGPA <= 3.55\ngini = 0.444\nsamples = 3\nvalue = [0, 0, 0, 0, 2, 0, 1, 0, 0, 0, 0, 0, 0, 0\n0, 0, 0, 0, 0, 0, 0, 0, 0, 0, 0, 0, 0, 0]\nclass = Biomedical Engineering", fillcolor="#dbf29c"] ;
42 -> 46 ;
47 [label="gini = 0.0\nsamples = 1\nvalue = [0, 0, 0, 0, 1, 0, 0, 0, 0, 0, 0, 0, 0, 0\n0, 0, 0, 0, 0, 0, 0, 0, 0, 0, 0, 0, 0, 0]\nclass = Biomedical Engineering", fillcolor="#b7e539"] ;
46 -> 47 ;
48 [label="Gender <= 0.5\ngini = 0.5\nsamples = 2\nvalue = [0, 0, 0, 0, 1, 0, 1, 0, 0, 0, 0, 0, 0, 0\n0, 0, 0, 0, 0, 0, 0, 0, 0, 0, 0, 0, 0, 0]\nclass = Biomedical Engineering", fillcolor="#ffffff"] ;
46 -> 48 ;
49 [label="gini = 0.0\nsamples = 1\nvalue = [0, 0, 0, 0, 1, 0, 0, 0, 0, 0, 0, 0, 0, 0\n0, 0, 0, 0, 0, 0, 0, 0, 0, 0, 0, 0, 0, 0]\nclass = Biomedical Engineering", fillcolor="#b7e539"] ;
48 -> 49 ;
50 [label="gini = 0.0\nsamples = 1\nvalue = [0, 0, 0, 0, 0, 0, 1, 0, 0, 0, 0, 0, 0, 0\n0, 0, 0, 0, 0, 0, 0, 0, 0, 0, 0, 0, 0, 0]\nclass = Computer Science", fillcolor="#6de539"] ;
48 -> 50 ;
51 [label="Overall Percentage <= 81.5\ngini = 0.667\nsamples = 3\nvalue = [0, 0, 0, 0, 0, 0, 0, 0, 0, 0, 0, 1, 0, 0\n0, 0, 1, 0, 0, 0, 0, 1, 0, 0, 0, 0, 0, 0]\nclass = Law", fillcolor="#ffffff"] ;
41 -> 51 ;
52 [label="gini = 0.0\nsamples = 1\nvalue = [0, 0, 0, 0, 0, 0, 0, 0, 0, 0, 0, 0, 0, 0\n0, 0, 0, 0, 0, 0, 0, 1, 0, 0, 0, 0, 0, 0]\nclass = anethessia", fillcolor="#d739e5"] ;
51 -> 52 ;
53 [label="Entarance Result <= 600.0\ngini = 0.5\nsamples = 2\nvalue = [0, 0, 0, 0, 0, 0, 0, 0, 0, 0, 0, 1, 0, 0\n0, 0, 1, 0, 0, 0, 0, 0, 0, 0, 0, 0, 0, 0]\nclass = Law", fillcolor="#ffffff"] ;
51 -> 53 ;
54 [label="gini = 0.0\nsamples = 1\nvalue = [0, 0, 0, 0, 0, 0, 0, 0, 0, 0, 0, 0, 0, 0\n0, 0, 1, 0, 0, 0, 0, 0, 0, 0, 0, 0, 0, 0]\nclass = Pharmacy", fillcolor="#3956e5"] ;
53 -> 54 ;
55 [label="gini = 0.0\nsamples = 1\nvalue = [0, 0, 0, 0, 0, 0, 0, 0, 0, 0, 0, 1, 0, 0\n0, 0, 0, 0, 0, 0, 0, 0, 0, 0, 0, 0, 0, 0]\nclass = Law", fillcolor="#39e5bd"] ;
53 -> 55 ;
56 [label="gini = 0.0\nsamples = 2\nvalue = [0, 0, 0, 0, 0, 0, 0, 0, 0, 0, 0, 0, 0, 2\n0, 0, 0, 0, 0, 0, 0, 0, 0, 0, 0, 0, 0, 0]\nclass = Medicine", fillcolor="#39c3e5"] ;
0 -> 56 [labeldistance=2.5, labelangle=-45, headlabel="False"] ;
}